[{"weights": [[0.9353703260421753, 0.963395893573761, 0.5465453863143921, -0.13934898376464844, -0.167119100689888, -0.34673210978507996, 0.9692509174346924, -0.03197164833545685, -0.03646305203437805, 0.9319468140602112, 0.46421894431114197, 0.0324513241648674, 0.14068394899368286, 0.5027117133140564, -0.8014345765113831, 0.3252757489681244, -0.020263181999325752, 0.35394081473350525, 0.2693929374217987, 0.6283295750617981, 0.7358244061470032, 0.34844228625297546, -0.8974568843841553, 0.7057915329933167, -0.8447827696800232, -0.14668463170528412, -0.25099682807922363, 0.7326571941375732, -0.3313532769680023, 0.7220243215560913, 0.2817844748497009, 0.3512137532234192], [-0.03718329966068268, -0.8578059077262878, -0.482421338558197, 0.37841862440109253, -0.7669223546981812, 0.8096477389335632, 0.466904878616333, -0.05073440074920654, 0.9059046506881714, -0.08156396448612213, -0.7133257389068604, 0.6282330751419067, -0.25725996494293213, -0.37600815296173096, -0.37906190752983093, -0.8748335242271423, 0.8787042498588562, 0.18195593357086182, 0.9087851643562317, 0.696885883808136, 0.6329031586647034, -0.8601524829864502, -0.684319257736206, 0.32893386483192444, 0.13122624158859253, 0.06442298740148544, 0.0024677137844264507, -0.1579921394586563, 1.0026733875274658, -0.08518034964799881, 0.49133792519569397, -0.8753726482391357], [-0.19823189079761505, 0.12124263495206833, 0.7268627285957336, 0.26981499791145325, -0.2075001746416092, -0.05024910718202591, 0.20855014026165009, -0.7957512140274048, 0.8442478775978088, -0.7172485589981079, -0.9821674227714539, -0.9749099612236023, -0.16972211003303528, -0.9174137711524963, 0.6018575429916382, 0.6413975954055786, 0.5343338847160339, -0.7070164680480957, -0.23835614323616028, -0.37187352776527405, 0.0640636458992958, 0.20415621995925903, -0.26294204592704773, 0.8260930776596069, -0.8867685794830322, 0.5696518421173096, 0.9139313697814941, -0.2305796593427658, -0.2753157913684845, 0.4237237274646759, 0.5400712490081787, 0.39748018980026245], [-0.7448473572731018, 0.9615210890769958, 0.30448710918426514, 0.968986988067627, 0.549781322479248, 0.22270353138446808, 0.1354682594537735, -0.2959710359573364, -0.08713298290967941, 0.17455808818340302, -0.3475179970264435, 0.6424998044967651, -0.17840445041656494, -0.9820089936256409, -0.5556985139846802, -0.9503949284553528, -0.4048008918762207, 0.7816520929336548, -0.1622113436460495, 0.4791496992111206, 0.18964792788028717, -0.5958753824234009, 0.6170967221260071, -0.22773583233356476, 0.5090327262878418, 0.8999364972114563, -0.611465573310852, -0.12413385510444641, -0.20540836453437805, -0.44223496317863464, -0.47452491521835327, 0.5587046146392822], [0.2150469869375229, -0.8454040288925171, -0.3288027048110962, -0.08356878161430359, -0.020636240020394325, 0.7922690510749817, 0.0878407210111618, 0.2804183065891266, 0.14274296164512634, 0.03171803802251816, 0.19273683428764343, -0.5884173512458801, 0.8507906198501587, -0.7275750637054443, -0.08064539730548859, -0.7205766439437866, 0.684673011302948, -0.2589116096496582, 0.2655247449874878, -0.41211631894111633, -0.9769651293754578, 0.03716817498207092, 0.2778412997722626, 0.31882983446121216, -0.4047616124153137, 0.32964059710502625, 0.9534870982170105, 0.1962215155363083, -0.29257404804229736, 0.40649715065956116, -0.6276025176048279, 0.7084954380989075], [-0.6219511032104492, 0.9784009456634521, 0.7362676858901978, -0.7111995220184326, 0.6000542044639587, -0.28119704127311707, 0.5265635848045349, -0.08129345625638962, 0.47267618775367737, 0.07804147899150848, -0.421107679605484, 0.5567270517349243, 0.7599855065345764, 0.8445492386817932, 0.7197056412696838, 0.5747266411781311, 0.9538094997406006, 0.25193434953689575, -0.17483766376972198, -0.020979173481464386, -0.8647504448890686, 0.06434184312820435, 0.42559555172920227, -0.5900838971138, 0.27982309460639954, -0.6760903000831604, -0.9973475337028503, 0.4215317368507385, -0.8002934455871582, 0.48629292845726013, -0.22147279977798462, -0.34890493750572205], [0.28360915184020996, 0.33879417181015015, 0.7773841023445129, 0.43264421820640564, -0.30200690031051636, 0.2831853926181793, -0.6586775779724121, 0.1928020715713501, 0.7696160078048706, -0.9466433525085449, -0.21934901177883148, 0.29551249742507935, -0.2112135887145996, 0.04601048678159714, -0.25330016016960144, -0.48775938153266907, 0.7433809041976929, -0.7576231360435486, 0.7212451696395874, 0.9364423751831055, 0.04547945410013199, 0.554714024066925, -0.2893458902835846, -0.3722342848777771, -0.5131799578666687, -0.14066702127456665, 0.7126483917236328, -0.8301234841346741, 0.24747952818870544, 0.22527173161506653, 0.4219493567943573, 0.8594048619270325], [0.4130287170410156, 0.26206308603286743, 0.0005361516959965229, -0.5727277398109436, 0.025029106065630913, 0.41616663336753845, 0.03489471226930618, 0.6132650971412659, -0.07909727096557617, 0.11802782118320465, -0.6918982267379761, -0.29339975118637085, -0.3709873855113983, 0.07836710661649704, 0.4025082588195801, -0.0008219562587328255, -0.850223183631897, -0.32668519020080566, -0.376370370388031, -0.2770792245864868, 0.7780754566192627, -0.327764630317688, -0.7822902798652649, -0.8961017727851868, 0.04472598433494568, 0.08082038909196854, 0.6017967462539673, 0.4269881546497345, -0.616716206073761, 0.5102270841598511, 0.27938276529312134, -0.773225724697113], [-0.18090859055519104, 0.7788379192352295, -0.9380812048912048, 0.4210332930088043, -0.852789580821991, -0.6230053901672363, 0.24941092729568481, -0.05886947736144066, -0.34018781781196594, -0.9187402725219727, 0.3136679232120514, 0.6661776900291443, -0.5679640173912048, -0.083436980843544, -0.6119323372840881, 0.26917764544487, -0.2624623775482178, -0.3819703459739685, 0.7589283585548401, 0.681492805480957, -0.420742392539978, 0.9134827256202698, 0.17185121774673462, 0.5977705121040344, 0.21271562576293945, 0.9517489671707153, 0.8507095575332642, 0.8774195909500122, -0.2127721607685089, -0.006178002338856459, 0.036369770765304565, -0.9120000004768372], [0.33613502979278564, 0.439161479473114, 0.7932915091514587, 0.40652528405189514, 0.8511770963668823, -0.6018017530441284, -0.32620128989219666, -0.7829105257987976, 0.8062530755996704, -0.49172243475914, -0.7128228545188904, -0.313590943813324, 0.667604386806488, 0.14153452217578888, -0.624466598033905, 0.7157942056655884, 0.34783506393432617, -0.5690707564353943, -0.42231374979019165, 0.1500404179096222, -0.2257860153913498, -0.8418977856636047, 0.7793888449668884, 0.35069313645362854, 0.3309740424156189, -0.8135078549385071, -0.19065527617931366, -0.8340019583702087, -0.05284200981259346, -0.3144806921482086, 0.020654859021306038, -0.7568849921226501], [-0.19189108908176422, -0.03665735572576523, 0.21776843070983887, 0.21194064617156982, -0.9751818776130676, -0.2713842988014221, 0.8870205283164978, -0.5613106489181519, 0.4666748344898224, 0.5060333013534546, -0.15541303157806396, 0.6127018332481384, 0.3731657564640045, 0.8565874695777893, -0.3716909885406494, 0.9231618046760559, 0.17630431056022644, -0.7271885871887207, 0.6379358768463135, 0.8387823700904846, -0.4828000068664551, 0.3876325190067291, 0.28414371609687805, -0.6132959723472595, -0.29855796694755554, 0.14486970007419586, -0.8629253506660461, 0.09163596481084824, 0.3127516508102417, 0.3079332411289215, 0.8813721537590027, 0.11565724015235901], [0.7925125360488892, 0.7246938943862915, 0.9344500303268433, -0.9348419308662415, -0.11723556369543076, 0.21148903667926788, -0.38688865303993225, -0.2772679030895233, -0.8238812685012817, 0.024485960602760315, -0.17595335841178894, -0.9854186177253723, 0.5361003279685974, -0.1923745572566986, -0.34087634086608887, 0.14826487004756927, -0.6669368147850037, -0.25344035029411316, 0.17541517317295074, -0.27377307415008545, 0.0068004559725522995, 0.2505108416080475, 0.1435970962047577, -0.4617958664894104, -0.6222012639045715, 0.30023589730262756, -0.9160580039024353, 0.4012581408023834, -0.36076462268829346, 0.9396801590919495, 0.013824248686432838, -0.41450148820877075]], "biases": [0.8588052988052368, 0.5613430738449097, 0.8187558054924011, 0.06716299057006836, 0.7040562033653259, 0.8891627192497253, -0.6099725365638733, -0.1587480902671814, 0.8957995176315308, -0.5865930914878845, 0.8814108967781067, -0.8473939895629883, 0.5116614103317261, -0.08037570863962173, -0.6383428573608398, -0.6328684687614441, 0.5493477582931519, -0.7024869322776794, 0.8124982714653015, -0.8820624947547913, -0.6660383343696594, -0.41919752955436707, 0.6475480198860168, 0.007417431101202965, -0.3520205318927765, 0.11835815012454987, 0.6878467798233032, -0.020043237134814262, -0.6666923761367798, 0.7553354501724243, 0.6147252321243286, -0.6691418886184692]}, {"weights": [[0.6429404435965074, 0.8362798758466574, 0.41834939151817907, -0.6669002500735384, 0.9893416678426137, -0.7356978845681272, 0.8873786607121077, 0.2732353520528943, 0.8985909209435279, 0.11081498838205905, 0.07365677023795003, 0.03364059036012379, -0.509684738477145, -0.6187485049098416, 0.14333195191965808, 0.8355716184928801], [-0.4183619760965931, 0.06494701447324491, 0.549194871656302, 0.9269718469160149, 0.07456292565305422, -0.5829408463062313, -0.10205327204948622, -0.32805811465333856, 0.39741939900232737, 0.8789109675230364, 0.6955268400386778, -0.40981595516338887, 0.41383575952256413, -0.9570785744330672, -0.029937040385213498, 0.9111833104110216], [0.3282098943653138, -0.39799698702537567, -0.3121122332696924, -0.787894323835, 0.5181208128793875, 0.6292991044802949, -0.6333504229522942, -0.680257260061875, 0.9765788552855876, 0.6485192862252844, 0.02112269023008473, -0.41763114625133246, -0.904513939460351, -0.28854493587198604, -0.5853237482506763, -0.9017239664795036], [-0.925406710016937, 0.7107781718609114, -0.11347791770508486, 0.8994716332484658, -0.6579685389155197, 0.6381774481718328, -0.06311720901686324, 0.7876519294893549, -0.6388585602064036, -0.5901472680668411, -0.12320301494681574, -0.572833014495832, -0.4545343639148536, 0.5932976932252929, -0.1331564656707711, -0.8637245938977745], [0.9432671096362644, -0.8414553358061734, 0.0033262203772255194, 0.06393210076976574, 0.13809033333169762, 0.8097900173202113, 0.25317178518158023, 0.23814686954064457, 0.3798998415731305, 0.1996299116071294, 0.5527121299447961, -0.7439045781155442, 0.4236312971717118, 0.2363638947108866, -0.7646396888156628, 0.9881091925940619], [-0.837424985650477, 0.02386421440070685, 0.8451701324358305, -0.7072353412208039, 0.9797530213139058, -0.19263320978383525, -0.22001596521178546, 0.7512005337009591, -0.09541131384746815, -0.7625629819761575, 0.6549172578269089, 0.5158694488570432, -0.03809949668949586, 0.26088788432319165, 0.7073086692663104, -0.0179590111701875], [-0.3083460943984315, -0.6986725938532734, -0.8959889411886961, 0.5903857036447513, 0.04832314861943399, 0.02073216508266751, 0.9656843419553607, -0.16419442819027408, 0.9952705468265561, 0.5188425902171472, 0.7993982387518843, 0.049338915949606266, -0.9307027235627272, 0.5367957611906153, 0.9850410123073994, -0.05477019574337061], [0.32108187131507093, -0.0956659826431745, 0.8914992065741094, 0.9149780949148769, 0.6896915668466492, 0.29890663790799166, -0.5443575181341787, 0.8379229603228087, -0.6630225569497512, 0.3546859296669409, -0.44098694809609973, 0.033872173132122096, -0.4141332610864572, -0.3492932344535109, 0.1794580899778282, 0.43548048710845344], [-0.7542297335792805, -0.7572164381210116, 0.7425770615747269, -0.10860924708234121, 0.8106184125374243, 0.5337496187487463, -0.10751918688788553, -0.2314991098071173, 0.33620411031642616, 0.43965448958461373, -0.5436654761436543, 0.9524196690351885, 0.7679414520766112, 0.2837046681596862, 0.44148755118186145, 0.3193379960159235], [0.9245492737022791, -0.8224386047144441, 0.5019379779929563, -0.24821638332092788, -0.18842578369826346, -0.25392137491749867, -0.8152481600733521, 0.07570901581987721, 0.23301191058402204, 0.3516871328403808, 0.11509957394494519, -0.19465872484449975, 0.8569935321428277, -0.3900141675432618, -0.5204804439693129, 0.16006937810889021], [-0.862917819039833, -0.3286238866913571, -0.003945499121853047, -0.14266462752467834, -0.09074612095425372, 0.6188068191818796, 0.9801560023979838, 0.17496724830519872, -0.9904563372883068, 0.05642008137777821, -0.031158576029832075, -0.5672340592917127, -0.5146496111135155, -0.3361475720297782, -0.4916595423836687, 0.9065819349893787], [0.9333547322302724, 0.4894468649576289, 0.8153600444999634, 0.681103393016502, -0.29911602249377567, 0.7696702553786887, -0.42430638425695966, 0.7232909452289469, 0.19574276356409692, -0.18026665310814027, -0.46119111853685824, -0.24442078802008793, -0.2997710300271368, 0.9916439520422897, 0.4085062142429243, -0.0240212710426555], [0.5545523493486033, 0.03747936828083431, -0.4178830623026275, -0.9845916601306701, 0.19063487504068233, 0.8122446642017978, -0.1879594345677702, -0.8368694279219366, -0.7441098850269126, 0.002964276274919797, 0.662586687234707, -0.14665533946945386, 0.8110984294192449, 0.7756919381892524, 0.2559161983033036, 0.17457846176592495], [0.4496375683232665, 0.5778223506093532, -0.8645603906292041, 0.5277424466531682, -0.9976785890827733, -0.16639621767698975, -0.023618454794061883, 0.495840494244808, -0.08117121929712745, -0.08256961444617805, -0.9982342112961247, 0.3100306986844752, 0.18065039198429567, 0.7550785586155222, 0.8833748087152826, -0.7997322211635343], [-0.46375448051447266, 0.45384502258156223, -0.2789319398990828, 0.1812811818000173, 0.27462583342434965, 0.005405933997788548, -0.12458779958375343, 0.1337166626137496, 0.9186392072926899, -0.7177432076379866, 0.5558152474142635, -0.4673107195382542, 0.24304249899785613, -0.7506032889916232, 0.7789101269765697, 0.19324037204157918], [0.33144375262111625, 0.557700389848053, -0.11282022633239341, -0.4143299075563289, -0.5946587451498053, 0.6436134732744787, 0.004456361854912272, -0.7079929948254251, -0.7714462653105258, 0.4509836700161358, -0.161223037036061, -0.862843723563985, -0.398273094553969, 0.24140069576009626, -0.35068785124565416, 0.9055034027952598], [0.15441882598730894, -0.6276231537167816, 0.537403069721313, 0.9717173945405666, -0.9005052812924592, -0.25296979488801985, -0.633611245447036, 0.9498785106197878, -0.8769132199878134, 0.8190793300275168, 0.34206245722668616, 0.8301411740423326, -0.15594332317979842, -0.8398239883908947, 0.6969151307950792, -0.1423416165757836], [0.6370663074489271, 0.9955217470502933, 0.8809453160304364, 0.3806424571534599, 0.9255595561751802, 0.18259543207885987, -0.07143044083762806, 0.432987982800775, -0.8394728607681652, -0.8311895599773043, 0.8416644280138927, 0.4166444838028813, -0.5646377569222969, -0.6524456674925436, -0.183969482951148, 0.7604590598051468], [0.5253884217903289, 0.8055568969236544, 0.9651308649670043, -0.7244734394813059, -0.18248584341257512, 0.2374492032263602, -0.3080848834984886, 0.7557065010538966, 0.13668259588143306, -0.5636095964991192, -0.21851544329771833, 0.08359742098669387, 0.36688606621243847, -0.613957971789717, -0.2959055160449797, 0.12966182755983247], [0.9111937892743918, 0.6102830466808158, 0.5603015971432099, -0.22263827241021983, 0.8449368856315487, 0.4932038680861939, -0.7370642747783873, 0.41232803862787293, -0.6716593579747103, -0.16973995968187516, 0.7299478446690932, 0.30471546660465276, 0.3028857418889459, -0.3692350339508019, -0.31180888156738296, -0.5773871380758342], [-0.5379207254018277, -0.9670443098346144, -0.6063561392693089, 0.323415383031759, 0.7139817134471103, -0.5556108806447304, 0.7159446336187607, 0.6227048343221548, -0.7955575218886226, -0.15664591332927347, 0.716911105689434, 0.5025155665171008, -0.0008964756737090962, 0.4135134193131891, 0.5903857586241379, -0.6696493195430386], [-0.8592388378820295, 0.8074841471622924, 0.9742558724308423, -0.6415318954103135, 0.18950024342008542, 0.5870975147002968, 0.2933443720797202, 0.6745596740859088, -0.4230940128142031, 0.14516434153995528, 0.746433381867863, -0.3774731091629697, 0.1441798581885918, 0.8039494670906158, -0.46541790130742555, -0.629349158677339], [0.14528340710475418, -0.4067363254750431, 0.0019904666412955407, -0.12946340334712136, -0.16659399961604748, -0.4727803605918717, 0.9461415972548151, -0.4864112418356983, 0.01551429162586504, 0.5076239409416381, 0.24372060128505146, -0.2697823793422742, 0.9716829903181072, -0.40093441338806923, -0.5406484467699104, -0.06839782844017028], [0.7101417873276721, 0.371593245054636, 0.6629277491015526, -0.344355987381886, -0.0912581468221898, 0.9265731127213752, 0.23341177823592685, 0.22691235333391857, -0.8688327458710305, -0.269148268212382, 0.4841105105955008, -0.5233541582971533, 0.5659854148326318, -0.574581013644778, 0.5761812201286027, -0.016852871824491356], [-0.24585618292365563, 0.5592878117117448, -0.7066040588857889, 0.48580667291791446, 0.046465629345944226, 0.6293921128414501, 0.12900499265426446, 0.7452010641831583, -0.03740625547304499, 0.27791513248373256, -0.27142844071073413, 0.8864725283757167, -0.8898197666670804, 0.614597711804362, 0.7776803539329995, -0.13542912302861576], [-0.3952810408222507, -0.8360396922242015, 0.3930291229979883, -0.9650035602072509, 0.5960652050595892, 0.5493355879469615, -0.6832338734163903, 0.37880935676000926, -0.11401772794516418, -0.03073559121897862, 0.34438584999696653, -0.14708979097485209, 0.36306688920127494, -0.2540384503091344, 0.6856277308837526, 0.16809141571998132], [0.8517346677437592, -0.9624019329441751, -0.7059861018597595, -0.3068570260163468, 0.007212534657904612, 0.8692718612468651, 0.6812573790882102, -0.21480403480405585, -0.4577359553115381, 0.6952482672245897, 0.9803427921693715, -0.15845126248683195, 0.5479072251483132, -0.3668834958205438, 0.33552734596926426, -0.42209453663285634], [-0.8786546269443138, 0.7040433323244089, 0.5751847351881061, -0.9838358993964096, 0.9063848608539151, -0.17852099712603375, 0.31197250490036277, 0.8731812224841098, 0.6633781456722609, 0.1875969159201285, -0.58031453133252, 0.06714004843096899, 0.9556806614293125, -0.7313231126871522, 0.02429583864157636, -0.7968226267349947], [-0.5213561980138144, 0.3398146456773614, 0.8676427641974775, -0.2145984415590112, -0.3533435094397357, -0.3871696701458036, 0.716254821866968, -0.47263815491586647, -0.46168661703350033, -0.975883602889513, -0.26977465297196224, -0.15132404916157083, 0.03014656629508239, -0.9352103341027884, -0.046009411713379134, -0.197875825459215], [0.1831043258650047, -0.7019408129536497, -0.48899298811580394, 0.2695446225892453, 0.8697586800705797, 0.6574196053575874, 0.9956983501833088, -0.04310177554223871, 0.431561067394467, -0.7341644281326392, -0.11580782598090789, -0.12307630435422534, 0.06611688111949765, 0.6353020022892724, 0.06860815416819599, 0.20892818667210644], [0.5107542225514279, -0.5541383736422065, -0.12715152943272723, -0.8882576357376648, -0.9305751541129481, 0.420227999361922, -0.5003495188293947, -0.701328125909682, 0.8301083514262542, -0.10621006352094131, -0.5260916993205182, -0.835222591171509, -0.4019674500430279, 0.7564228558608037, -0.18448972101847216, 0.20312726392085567], [-0.36132834241970313, -0.2731693231145267, 0.32402501786660376, -0.3528641866718518, -0.31268933676248456, 0.44454922100683913, -0.43283751738021703, -0.7266502613826207, 0.6424132075734861, -0.9866174307771787, -0.2453738793738085, 0.6899928465323231, 0.44612285999884027, -0.1690406568189302, 0.9505389651082656, 0.833442000588051]], "biases": [0.3916441798210144, 0.5988017320632935, -0.4423307180404663, 0.039624251425266266, 0.15911050140857697, 0.8337280750274658, 0.38313907384872437, -0.37156054377555847, 0.9430479407310486, -0.5776506662368774, 0.7091752290725708, -0.33635979890823364, -0.28841519355773926, 0.4828750193119049, -0.463528037071228, 0.24904924631118774]}, {"weights": [[0.3531649707446842], [0.7240636250558934], [-0.5764428349930959], [-0.9310390911027013], [0.25601788358160604], [0.5236678835431163], [0.2852064979920905], [0.5341065326146273], [0.25072446272346816], [-0.12220734919797982], [0.030558025338758066], [0.35422489177552485], [0.6861542892256096], [0.7626864149660029], [0.35151305190225934], [0.6892723068624296]], "biases": [0.525688886642456]}]