[{"weights": [[-0.3298538029193878, -0.19371409714221954, -0.3577021658420563, -0.9467889666557312, -0.6784984469413757, -0.3067575693130493, 0.15094473958015442, -0.479474812746048, -0.15046092867851257, 0.7191013097763062, 0.2818385660648346, -0.4018959701061249, 0.2911759912967682, -0.43520626425743103, 0.8713358044624329, 0.9957439303398132, 0.07524552941322327, -0.9988362789154053, -0.8287166357040405, 0.20827682316303253, -0.6752016544342041, -0.05011947080492973, -0.8786821365356445, -0.2664963901042938, 0.36375343799591064, 0.24688008427619934, 0.5328584909439087, 0.7065750360488892, 0.8389618992805481, 0.6874391436576843, 0.9155864715576172, 0.013452751561999321], [0.691464364528656, -0.9361132383346558, 0.16867417097091675, -0.42885854840278625, 0.8518755435943604, 0.7230371236801147, 0.6182440519332886, 0.10200001299381256, 0.3896351754665375, -0.40369194746017456, 0.8157699704170227, -0.9801030158996582, -0.05580192431807518, 0.14556032419204712, 0.02518806979060173, 0.12318354099988937, -0.5891546607017517, 0.8248535990715027, -0.3386719822883606, 0.15572068095207214, -0.06354422122240067, 0.4237332046031952, -0.0986102968454361, -0.8888485431671143, 0.6282256245613098, -0.7920178174972534, -0.4116937518119812, -0.26696324348449707, -0.5948969125747681, -0.6630248427391052, -0.6471567153930664, 0.823767364025116], [0.785187840461731, 0.03737299144268036, 0.9994983077049255, -0.6729966998100281, 0.14703340828418732, -0.6875771284103394, -0.6133248805999756, -0.4188689887523651, 0.6808207631111145, -0.6943723559379578, 0.9609917402267456, -0.8266247510910034, -0.10097862035036087, 0.5555419325828552, 0.31220394372940063, -0.4060550034046173, 0.046987004578113556, -0.8047879338264465, 0.47128140926361084, -0.7666380405426025, -0.6158484220504761, -0.31966280937194824, 0.644773542881012, -0.5239362120628357, 0.855418860912323, 0.36098137497901917, 0.3850838243961334, -0.6162559390068054, 0.060444142669439316, 0.2649240791797638, 0.11899807304143906, -0.8125136494636536], [-0.8639451861381531, -0.08360005170106888, -0.5348609089851379, -0.9112582206726074, 0.08962210267782211, -0.5195508599281311, 0.07879222184419632, 0.7582959532737732, 0.40397921204566956, 0.6806164979934692, -0.12111186981201172, -0.08575690537691116, -0.13778690993785858, -0.668778657913208, -0.07533387839794159, -0.6903018355369568, -0.6980069279670715, -0.9781290292739868, 0.18879742920398712, 0.5977544784545898, 0.9295563697814941, 0.36545678973197937, -0.8733876943588257, -0.9282674193382263, 0.589715838432312, -0.5429683327674866, 0.9448034167289734, -0.6809291839599609, 0.775215208530426, -0.8357876539230347, -0.8169002532958984, -0.7555480003356934], [0.4990949332714081, 0.5141597390174866, -0.07944564521312714, -0.6089635491371155, 0.9356914162635803, 0.8863040208816528, 0.2552132308483124, 0.937804639339447, 0.6718778014183044, -0.9513685703277588, -0.43252798914909363, -0.05676573887467384, -0.7267115116119385, -0.16842563450336456, -0.7402292490005493, -0.6827003359794617, -0.9978762269020081, -0.14997221529483795, 0.10572493076324463, 0.5455269813537598, -0.06553749740123749, 0.8164548873901367, 0.15495522320270538, -0.36623454093933105, -0.8467853665351868, 0.9186866879463196, 0.8961663842201233, -0.44743406772613525, 0.4137973189353943, 0.5234997868537903, -0.8659085631370544, 0.02662661112844944], [0.5446293354034424, -0.9053670763969421, -0.9358601570129395, -0.2712252140045166, -0.7849308252334595, -0.36104080080986023, 0.5731244087219238, -0.02191309630870819, -0.11693523824214935, -0.9609817862510681, -0.03953569754958153, -0.8441293835639954, -0.335112065076828, 0.09077233821153641, -0.03616001829504967, -0.4823438823223114, 0.26092156767845154, 0.4503406584262848, -0.5546165108680725, -0.5852193832397461, -0.24394157528877258, 0.7121764421463013, 0.36782753467559814, -0.8496302962303162, 0.1948549747467041, -0.8659132122993469, -0.26545262336730957, 0.839888334274292, 0.7539358139038086, -0.6402968168258667, 0.4934893548488617, -0.9366778135299683], [0.1887839436531067, 0.4629020392894745, -0.47664526104927063, 0.36883553862571716, 0.5187605023384094, 0.4327557682991028, -0.03902502357959747, -0.8954896330833435, -0.8825747966766357, 0.5358683466911316, 0.910910427570343, 0.34717461466789246, -0.7655414342880249, -0.06701014190912247, -0.07715689390897751, -0.02558656595647335, 0.19801922142505646, -0.7532182335853577, 0.9348904490470886, -0.5326728820800781, 0.8489916920661926, -0.2646389603614807, 0.059089649468660355, -0.4849499464035034, -0.7016189694404602, -0.6371718645095825, -0.5380105376243591, -0.915398120880127, 0.38345205783843994, 0.8948847055435181, 0.33954760432243347, -0.5386219024658203], [-0.9913589954376221, -0.6365327835083008, 0.4814923405647278, 0.46941131353378296, -0.8618767261505127, -0.7893085479736328, -0.860679566860199, -0.5002987384796143, -0.7636188268661499, 0.5193012356758118, 0.829933762550354, 0.14234642684459686, -0.8599856495857239, -0.989769458770752, 0.8067870736122131, 0.5694137811660767, 0.6841822266578674, 0.47498583793640137, -0.1545564830303192, 0.8251186013221741, 0.8271389603614807, -0.36734023690223694, 0.36512166261672974, -0.786617636680603, -0.8227494955062866, 0.03647178038954735, -0.32785654067993164, 0.318379670381546, 0.10483213514089584, 0.8665381669998169, 0.7084473371505737, 0.14470069110393524], [0.5102679133415222, -0.9848225116729736, 0.8839907646179199, -0.9715665578842163, 0.5581677556037903, 0.4323076009750366, 0.29446256160736084, 0.12323745340108871, 0.3321726322174072, 0.9363827109336853, -0.21703045070171356, -0.11531013250350952, -0.25723618268966675, 0.005623872857540846, 0.07462828606367111, 0.12991780042648315, 0.9468267560005188, -0.014694607816636562, 0.7096483707427979, 0.7081582546234131, 0.13536016643047333, 0.4996221363544464, -0.07514175027608871, -0.5756117105484009, -0.6824005246162415, -0.3895428478717804, -0.9362019896507263, -0.07142870128154755, -0.23248645663261414, 0.7884580492973328, 0.3414016366004944, -0.8302942514419556], [-0.764456033706665, 0.9255449175834656, -0.8128182291984558, 0.24324782192707062, 0.2030070275068283, -0.275113582611084, 0.366791307926178, 0.7513909935951233, -0.6102088093757629, 0.9210612773895264, 0.2956202030181885, 0.1449553221464157, -0.6765339970588684, -0.9036504030227661, 0.6252886652946472, -0.40507885813713074, 0.7508713603019714, -0.018861213698983192, -0.9957060217857361, -0.7262430191040039, -0.9198205471038818, -0.7526872158050537, -0.6513622403144836, -0.14413972198963165, 0.7112748026847839, -0.6666530966758728, 0.08632974326610565, -0.8752629160881042, 0.09240501374006271, -0.8864333033561707, -0.610293447971344, -0.45172226428985596], [-0.7867384552955627, 0.2312556654214859, -0.13841889798641205, 0.3332580029964447, -0.6460516452789307, -0.4943298399448395, 0.22038523852825165, -0.0004524309770204127, 0.31378716230392456, 0.6184462904930115, 0.5422680974006653, 0.8526310920715332, -0.8362669944763184, 0.1820983588695526, 0.7149442434310913, 0.00484319357201457, 0.9322896599769592, 0.8364987969398499, -0.9536426663398743, 0.9348186254501343, -0.13357146084308624, 0.9468562602996826, -0.6455617547035217, -0.03971268609166145, 0.9754282832145691, -0.6832857131958008, -0.4531280994415283, 0.11615178734064102, 0.7762026786804199, 0.8085502982139587, 0.480960875749588, 0.3787167966365814], [-0.11875041574239731, -0.5675438046455383, -0.23189353942871094, -0.4372953474521637, -0.38976791501045227, -0.1649654358625412, 0.1994030773639679, -0.1622837483882904, -0.011146270669996738, -0.8669809103012085, 0.8979457020759583, 0.6086769700050354, -0.14658421277999878, 0.7431012988090515, -0.949571967124939, 0.8920067548751831, 0.47198227047920227, -0.11291243880987167, -0.6409327387809753, 0.029242394492030144, -0.0010516014881432056, 0.34791967272758484, 0.03296072408556938, -0.8597313165664673, 0.9478563666343689, 0.3487344980239868, -0.6512908339500427, -0.7907288670539856, 0.8567115068435669, 0.07458329945802689, -0.5362340807914734, -0.20539429783821106]], "biases": [0.03869408741593361, -0.43629196286201477, -0.39715757966041565, 0.35919496417045593, -0.18734917044639587, -0.3429058790206909, 0.40978601574897766, -0.9961537718772888, 0.029955321922898293, -0.3508569002151489, 0.6266165375709534, 0.07026715576648712, 0.3775259554386139, -0.4418226182460785, -0.07924972474575043, -0.9082533717155457, -0.2539956271648407, 0.1571381837129593, -0.19788430631160736, -0.648783266544342, -0.9598153233528137, -0.1550973504781723, -0.18408766388893127, -0.9961978793144226, 0.9806299209594727, 0.9621142148971558, 0.13315238058567047, -0.10635922104120255, -0.31069788336753845, 0.41720181703567505, -0.04710632190108299, 0.9272799491882324]}, {"weights": [[-0.6723892039865538, -0.3422380357702204, 0.980401376679557, 0.00967525747051079, -0.7736667724125386, 0.6149887896870652, -0.6668592621399703, -0.5353815486389475, 0.1377520913275878, -0.7412673281506699, 0.7211553462221043, -0.6445058964578196, -0.4736840048399611, -0.491946332928882, 0.7889427749387277, -0.20955360436101156], [-0.49959373390495343, -0.14937200066861434, 0.8596521228580591, -0.5832454414874002, 0.522591123176509, 0.498373098287596, -0.4466277128485636, -0.08379824400728308, -0.4915288435551324, 0.6700398021692653, 0.5426151513499635, -0.5780698372681559, -0.46389470958606505, -0.03163147349662143, 0.43558530079413904, 0.34301749870609255], [0.25252685127340735, -0.46692729961470003, 0.360883213411868, -0.4049549524399967, 0.4450254255586277, -0.6516374650467627, 0.5149616507730326, 0.3275297949651035, -0.0011488452686576611, -0.13137612009673294, 0.5643509777903639, -0.900848284814864, -0.46933777949712097, 0.3228566284701204, -0.4227465099890566, -0.24987687418551463], [-0.773759745336585, 0.7339331018642978, -0.3404344371215977, 0.4925995912058323, -0.6622021935251625, -0.12156907082420076, 0.2422437543179079, 0.3425179901372488, 0.18299773074667303, -0.7619457880829965, 0.7720908652548764, 0.41968814490169204, 0.462151374163458, 0.11081499025759634, 0.5798621771983659, -0.6872845010348163], [0.5294749953719764, -0.9648734163657597, -0.6073741730103477, -0.8353949572321515, 0.7164558018841476, -0.22569720286707606, -0.3567746341814897, -0.6077063337928772, 0.24010155039949121, 0.7536093136132382, 0.7151590540809847, 0.1216411122151404, -0.46104938056071165, -0.3882200482966478, 0.3432842766283857, 0.7837120290008401], [0.07226802126664666, -0.4577650013492913, 0.3480655326578568, 0.543135934404855, -0.6943968211707738, 0.9972723899308817, 0.2845900465979756, -0.9353429912625362, -0.7037967924717357, -0.8899825777971997, 0.47916971068116054, -0.7469053607247627, -0.3795765493585692, -0.048824397819267285, -0.6145917338614777, 0.21176029056575518], [0.8836071620140813, -0.913676946531544, -0.6198596982733069, 0.39387318007519223, 0.2151007594968415, 0.9587358378521289, -0.6993502871932389, -0.19389017953093823, 0.23824836232946978, 0.7248158023729303, -0.735287750548663, -0.9863021919225579, -0.7645104665415481, 0.6087256123678735, -0.7515020008899125, -0.4876369374654028], [0.11413856273723644, 0.6884497997419214, -0.7758284285908754, -0.01720313791192618, -0.04573167753085139, 0.5574185009622543, -0.7006770554624222, 0.519099292088461, 0.8938630287513105, -0.9541357126854719, -0.2864207766054143, 0.06604244207958798, 0.4848314657227868, -0.3134921593225035, -0.9708565519383947, -0.4871110530929632], [-0.6965311501245544, -0.44972876227530545, 0.3250964911379286, 0.26834955849634334, -0.6697713626383945, 0.4484230825072524, -0.34358766994148526, 0.3979515994037579, -0.5571928427775408, 0.49196622872608686, 0.3936697855073026, -0.9051037682544429, 0.6841703402284507, 0.9282224826357557, 0.5297858062902514, 0.13338610795961547], [0.8937952127379147, -0.11201970831648089, 0.9475104656881324, -0.4282316087457527, 0.97190381180117, -0.8475978671470883, -0.03783395046696514, 0.18852257553948615, -0.9488002777580762, -0.6386330318347546, 0.6939858808412227, -0.856914957791395, 0.6828762135734034, -0.9464699228085551, -0.6635760159174486, 0.7378211802763459], [-0.7897708169873237, -0.323521662511844, -0.3130990201184305, -0.9632695810841019, 0.5315507736520786, 0.6572963863879913, 0.22363485342075684, -0.5638888507099507, -0.02049258442567803, -0.07871205870368692, -0.355764402577184, 0.9154290654685715, -0.07214712475625396, 0.689978257664098, 0.7794202290839474, -0.6071563559948103], [0.9259526846597661, -0.7087151876080453, 0.5554477777607989, -0.5780406232662492, 0.3497573067846069, 0.9181254191451371, 0.43852153318621867, -0.08439940759998432, -0.26113272948865496, 0.18494298372193363, 0.5774204390558748, -0.255614907873295, 0.3208549320427312, 0.308164666265462, -0.0549801255264728, 0.8889922002805244], [-0.4064732449185735, 0.7371579974172986, -0.5890010423148211, -0.1953964814242044, -0.578962146487078, 0.4860352448134124, -0.8870518813471744, -0.1339450034766727, -0.6478222155487439, -0.1160966825601033, 0.37404230571075736, -0.8519257511549849, 0.12581340876105562, -0.5529994218320542, 0.5866424449188938, -0.20986986704476762], [0.7398326903798287, -0.0528448275421225, -0.9634757779874152, -0.7888876539823275, -0.5677736698130582, -0.05072942213664966, -0.552098936251838, 0.8819510901981884, -0.6237071186961565, -0.753263202453728, 0.9892107981810168, -0.045986573796125585, -0.4074055277252633, 0.14794727197987956, -0.16339455345871068, 0.3124800785153923], [-0.40319177380720017, 0.6460780969130984, -0.5087299486838879, 0.6679499982525965, -0.897469280749648, 0.6271435016276388, -0.9113326356484144, -0.8718377953089906, -0.4184852024954444, 0.30045712047834927, 0.32677858882076616, 0.6681144473601675, -0.8067484915904004, 0.509626381910868, -0.2777855917216254, -0.7217143318334909], [0.2247825913758017, 0.08127033091513503, 0.9203911917327481, -0.298714238689477, 0.9683262008467268, 0.7921111194697286, 0.09379623590522801, -0.9328281690903351, -0.20612826921430782, 0.21232621455231793, -0.25299376901285053, 0.8149293739664465, 0.862779841258591, 0.13505551270529925, -0.5925053331554528, -0.4926471092147313], [0.09005422834062715, 0.4167200434626219, -0.0761040561222508, 0.26029036110265746, -0.20058581704382927, 0.29620245094851616, -0.4434840583920745, -0.1686288304641319, -0.530611735781819, -0.638531562698569, 0.6292919968282635, -0.259306474881849, 0.6204612590704988, -0.18903261163667162, -0.6462966703803326, -0.8476803830030533], [-0.10888733966126152, -0.6414174611479433, -0.5987177966499297, -0.5635222600060872, 0.49962393111792447, -0.7690107769570711, 0.15367470250187587, -0.5398067953494741, -0.6324482908108384, -0.12026467916090366, 0.11363322982009261, 0.8250832394758119, 0.010942430132101055, 0.10600489560298976, 0.12348630657656212, 0.8269507746566633], [0.2736912377165923, -0.1652010527898562, 0.3756718682622626, -0.08867805786429428, -0.505720619453008, 0.44327474361105224, 0.08656979166122314, 0.8921232635474512, -0.2842062956219189, -0.4105641093045771, -0.8892515422606695, 0.9695467614568549, 0.5147730156607149, -0.7865217299773104, -0.7598206624061998, 0.5788982211465388], [0.681777490808628, 0.7923702732710749, -0.7701612875853341, 0.5758600072338356, -0.5319328391399816, -0.8467342878709627, -0.6776425182959473, 0.2937184773264878, -0.5474857841921239, -0.024101236201286236, 0.26291980307798624, -0.7004073655153049, 0.01169209072368993, 0.7380651069829285, -0.3537804644522309, -0.6045348662057222], [-0.3611885297093165, 0.6638329598698558, 0.8229833764757035, -0.7633898656929079, -0.5683897653654633, 0.5619024029440141, 0.17626460165213542, 0.7400936417432955, -0.2424650146761007, -0.5898695487136363, 0.0021451137334496106, -0.43646509216257634, -0.40717728978397627, 0.9992898711049278, -0.9626219419107922, 0.1816045920244569], [-0.3463183201276143, -0.41650573522680845, -0.5926002968888402, 0.2770874560209613, 0.5821884310456598, -0.7787044506520744, 0.24597655913330296, -0.19223942699526142, 0.269883243025717, -0.5753824603367694, 0.03040336157104373, 0.9048930417281578, 0.6781578655466642, -0.1669138658016498, 0.04506021723505382, -0.012423265910453063], [0.810105793700653, -0.4733695591866456, 0.944722454418246, 0.7135321128847802, -0.2386149501367827, -0.25374539972017573, 0.9862560374342193, -0.8906290075625378, 0.9472780197143518, 0.7257561920242772, 0.3687791613119211, 0.3106419235578399, 0.09182278390321841, -0.5683653388776744, 0.5663586323002652, -0.7364294231857751], [0.2168607301603649, 0.7962953012346048, 0.5011476845993263, 0.6019420813502239, -0.9560799954707788, -0.828589289913573, 0.9554012711625715, 0.25166572575472346, -0.7008128467403303, -0.32195697535867795, -0.1892395726639371, 0.9131493102714021, 0.32680999425707324, -0.3575317856626472, 0.9948910159867161, 0.817474649662701], [0.0065053785118402985, 0.26340871339742766, -0.8479531808693015, 0.5522155928434098, -0.9390382303444404, 0.323262341019545, -0.7892046648551445, 0.4097446947481218, -0.7837551515049128, -0.5663760922692282, 0.8561971651281515, -0.29790268889422356, -0.1110470961559642, 0.2956717906814472, -0.8268782587494803, 0.22144466014039832], [-0.5694392952473555, 0.9028426440812043, -0.7806203921310804, 0.7330182104230625, -0.7053640973109796, 0.8807394481322948, -0.3613478314849228, 0.3261261664791335, 0.08950338041074324, -0.872683396287699, -0.8539485627986638, 0.4523673177565133, 0.5886583053992496, -0.9720296589081328, 0.17404267602407875, 0.9517609534712013], [-0.11244069411146085, -0.8231642590573867, -0.09532101975657903, -0.9792317122930909, -0.36904804735698993, 0.6182136686751918, -0.07054016522790141, 0.8867765121703892, 0.17938472434244113, -0.49762243081339474, 0.9374042583318676, -0.7530350529268637, 0.40272066128264994, -0.7922106295683078, 0.1687048738290695, 0.674554928560223], [-0.38931430666961764, -0.7732505090422914, -0.2836936011959448, -0.5003136949196543, 0.8132952132508195, -0.9465543429381129, 0.6377650119669194, -0.6582837704913367, -0.8413562325538342, 0.5421925221371626, -0.45363390320976626, 0.7723896147245164, -0.7673842168909888, 0.7079845873436703, 0.17510639765922154, -0.04790453324305566], [-0.1966230334829504, 0.7105406279385036, -0.7576434799553204, -0.09909685070630325, 0.5915816091262474, 0.20628991014957454, 0.5282174234781596, 0.44670186163950354, 0.6647529202505549, 0.020073779715668705, -0.6378115893277865, 0.11562219747125635, 0.41005951941611785, -0.19905213468370397, -0.4479995718464005, 0.4942126468526453], [-0.6705066659158909, 0.9195899455820185, 0.9805454128670239, -0.18528039449234002, -0.8707026445844315, 0.13836200774604213, 0.50444122661558, 0.7002868932531237, 0.8574706358227413, -0.5504937573713391, 0.021751454440971818, -0.1329445752128393, -0.15232634918380095, -0.5997374012029022, -0.4584076076146586, 0.6125951238301546], [0.13203090948760599, 0.804161237168564, -0.7137509973866574, -0.9194363506208361, 0.04995450626104603, -0.134827385616747, -0.3488455725264461, -0.4325623396116629, 0.5046198834423856, -0.6832935792234378, 0.5994979095793276, -0.24549960341169252, -0.5548773613561446, 0.9955797155334898, 0.9710290817990939, -0.3048751900457223], [-0.8725037778725131, -0.03020388486150627, 0.2590002969980314, -0.9861000839408265, -0.933461923260293, 0.4705627577047491, -0.9826867055494313, 0.49718575048758495, 0.5163002559804206, 0.4093920659833654, 0.9475060978983232, 0.6370564176722096, 0.9235318336245006, -0.8461235425608056, -0.6812783157920099, 0.2198532045977013]], "biases": [-0.8527700304985046, -0.1752094179391861, -0.9269067645072937, -0.5199266672134399, 0.9828938245773315, 0.3779323399066925, -0.9178451299667358, 0.8880451321601868, -0.41599974036216736, -0.7370084524154663, 0.6415439248085022, 0.16618642210960388, -0.11617821455001831, 0.17222073674201965, 0.6281766891479492, -0.9509739875793457]}, {"weights": [[0.8869193951066474], [0.48033641566652774], [0.20171437927244695], [0.29940557884181707], [-0.4131233958674281], [0.7900640684023852], [0.007937152505582024], [0.47332241594215585], [0.9844806218850333], [0.7906084645983997], [0.6845000884902939], [0.2547075632314073], [0.5760600068456696], [-0.12284447351641492], [-0.14597402594747422], [-0.8622197760694901]], "biases": [0.5804364085197449]}]